<?xml version="1.0"?>
<opencv_storage>
<stage1>
  <maxWeakCount>8</maxWeakCount>
  <stageThreshold>-8.4881085157394409e-01</stageThreshold>
  <weakClassifiers>
    <_>
      <internalNodes>
        0 -1 53519 -1.9087532535195351e-02</internalNodes>
      <leafValues>
        6.6349524259567261e-01 -6.0455191135406494e-01</leafValues></_>
    <_>
      <internalNodes>
        0 -1 54009 -3.4043699502944946e-02</internalNodes>
      <leafValues>
        4.9431636929512024e-01 -4.7121107578277588e-01</leafValues></_>
    <_>
      <internalNodes>
        0 -1 4002 3.2522745430469513e-02</internalNodes>
      <leafValues>
        -4.1906210780143738e-01 5.6089562177658081e-01</leafValues></_>
    <_>
      <internalNodes>
        0 -1 53675 -5.7014636695384979e-03</internalNodes>
      <leafValues>
        7.6365619897842407e-01 -2.3641894757747650e-01</leafValues></_>
    <_>
      <internalNodes>
        0 -1 53449 7.0458212867379189e-03</internalNodes>
      <leafValues>
        -2.5761628150939941e-01 7.8196388483047485e-01</leafValues></_>
    <_>
      <internalNodes>
        0 -1 52942 -6.6770282573997974e-03</internalNodes>
      <leafValues>
        7.6516312360763550e-01 -2.2848720848560333e-01</leafValues></_>
    <_>
      <internalNodes>
        0 -1 57389 -2.0791217684745789e-03</internalNodes>
      <leafValues>
        7.9388511180877686e-01 -1.8365025520324707e-01</leafValues></_>
    <_>
      <internalNodes>
        0 -1 43807 1.2905527837574482e-03</internalNodes>
      <leafValues>
        -3.4134319424629211e-01 5.7222920656204224e-01</leafValues></_></weakClassifiers></stage1>
</opencv_storage>
