<?xml version="1.0"?>
<opencv_storage>
<stage19>
  <maxWeakCount>28</maxWeakCount>
  <stageThreshold>-7.6157587766647339e-01</stageThreshold>
  <weakClassifiers>
    <_>
      <internalNodes>
        0 -1 38407 -2.8262375853955746e-03</internalNodes>
      <leafValues>
        -2.6121371984481812e-01 4.3041792511940002e-01</leafValues></_>
    <_>
      <internalNodes>
        0 -1 27679 1.1942226439714432e-02</internalNodes>
      <leafValues>
        -1.2946456670761108e-01 4.9555999040603638e-01</leafValues></_>
    <_>
      <internalNodes>
        0 -1 33949 -2.1912395022809505e-03</internalNodes>
      <leafValues>
        5.1080417633056641e-01 -1.4093410968780518e-01</leafValues></_>
    <_>
      <internalNodes>
        0 -1 38429 1.9047216046601534e-03</internalNodes>
      <leafValues>
        -1.9430176913738251e-01 3.2069051265716553e-01</leafValues></_>
    <_>
      <internalNodes>
        0 -1 43807 -1.6921283677220345e-03</internalNodes>
      <leafValues>
        5.3541976213455200e-01 -1.4260603487491608e-01</leafValues></_>
    <_>
      <internalNodes>
        0 -1 52932 -4.2035467922687531e-03</internalNodes>
      <leafValues>
        4.2601963877677917e-01 -1.4856004714965820e-01</leafValues></_>
    <_>
      <internalNodes>
        0 -1 68029 2.2009585052728653e-02</internalNodes>
      <leafValues>
        -1.2215489894151688e-01 4.9336099624633789e-01</leafValues></_>
    <_>
      <internalNodes>
        0 -1 53925 9.7437165677547455e-03</internalNodes>
      <leafValues>
        -2.4152693152427673e-01 2.4158629775047302e-01</leafValues></_>
    <_>
      <internalNodes>
        0 -1 7489 1.4945713803172112e-02</internalNodes>
      <leafValues>
        -1.1381813138723373e-01 5.2380955219268799e-01</leafValues></_>
    <_>
      <internalNodes>
        0 -1 53593 -4.0669549256563187e-02</internalNodes>
      <leafValues>
        -5.2393847703933716e-01 1.3777105510234833e-01</leafValues></_>
    <_>
      <internalNodes>
        0 -1 45459 -3.8897148333489895e-03</internalNodes>
      <leafValues>
        2.6307427883148193e-01 -2.1736732125282288e-01</leafValues></_>
    <_>
      <internalNodes>
        0 -1 38510 -4.3018840253353119e-02</internalNodes>
      <leafValues>
        -6.1388450860977173e-01 8.8874414563179016e-02</leafValues></_>
    <_>
      <internalNodes>
        0 -1 33863 2.6538425590842962e-03</internalNodes>
      <leafValues>
        8.0519579350948334e-02 -6.4486777782440186e-01</leafValues></_>
    <_>
      <internalNodes>
        0 -1 48509 -1.4748863875865936e-02</internalNodes>
      <leafValues>
        5.4808723926544189e-01 -1.1062857508659363e-01</leafValues></_>
    <_>
      <internalNodes>
        0 -1 48781 9.1265579685568810e-03</internalNodes>
      <leafValues>
        1.0129798203706741e-01 -6.9881737232208252e-01</leafValues></_>
    <_>
      <internalNodes>
        0 -1 71785 -2.9522811993956566e-02</internalNodes>
      <leafValues>
        2.4620772898197174e-01 -2.0085756480693817e-01</leafValues></_>
    <_>
      <internalNodes>
        0 -1 33522 -3.5910360515117645e-02</internalNodes>
      <leafValues>
        4.1335222125053406e-01 -1.2128623574972153e-01</leafValues></_>
    <_>
      <internalNodes>
        0 -1 56918 7.1175228804349899e-03</internalNodes>
      <leafValues>
        -9.4773530960083008e-02 5.4362899065017700e-01</leafValues></_>
    <_>
      <internalNodes>
        0 -1 53670 4.8598628491163254e-03</internalNodes>
      <leafValues>
        -1.3888725638389587e-01 4.8657774925231934e-01</leafValues></_>
    <_>
      <internalNodes>
        0 -1 57398 3.6976416595280170e-03</internalNodes>
      <leafValues>
        -1.5079568326473236e-01 3.5590705275535583e-01</leafValues></_>
    <_>
      <internalNodes>
        0 -1 75318 2.1020874846726656e-03</internalNodes>
      <leafValues>
        8.5083335638046265e-02 -5.8111560344696045e-01</leafValues></_>
    <_>
      <internalNodes>
        0 -1 48982 6.3398829661309719e-03</internalNodes>
      <leafValues>
        -1.3727127015590668e-01 3.8545635342597961e-01</leafValues></_>
    <_>
      <internalNodes>
        0 -1 44678 -7.1669695898890495e-04</internalNodes>
      <leafValues>
        -2.8285378217697144e-01 1.8728268146514893e-01</leafValues></_>
    <_>
      <internalNodes>
        0 -1 54330 -2.3524935822933912e-03</internalNodes>
      <leafValues>
        -8.2652562856674194e-01 5.9184085577726364e-02</leafValues></_>
    <_>
      <internalNodes>
        0 -1 42648 6.5467044711112976e-02</internalNodes>
      <leafValues>
        3.9124086499214172e-02 -8.9468085765838623e-01</leafValues></_>
    <_>
      <internalNodes>
        0 -1 40863 8.7855365127325058e-03</internalNodes>
      <leafValues>
        6.0243800282478333e-02 -6.6119551658630371e-01</leafValues></_>
    <_>
      <internalNodes>
        0 -1 64971 -1.6569521278142929e-02</internalNodes>
      <leafValues>
        4.5300808548927307e-01 -1.1855807900428772e-01</leafValues></_>
    <_>
      <internalNodes>
        0 -1 72983 -1.0576901957392693e-02</internalNodes>
      <leafValues>
        2.8701633214950562e-01 -1.8560859560966492e-01</leafValues></_></weakClassifiers></stage19>
</opencv_storage>
