<?xml version="1.0"?>
<opencv_storage>
<stage14>
  <maxWeakCount>26</maxWeakCount>
  <stageThreshold>-9.3518567085266113e-01</stageThreshold>
  <weakClassifiers>
    <_>
      <internalNodes>
        0 -1 22843 2.3589608073234558e-01</internalNodes>
      <leafValues>
        3.2626427710056305e-02 5.8344638347625732e-01</leafValues></_>
    <_>
      <internalNodes>
        0 -1 53668 -2.8079987969249487e-03</internalNodes>
      <leafValues>
        4.9436616897583008e-01 -1.2026366591453552e-01</leafValues></_>
    <_>
      <internalNodes>
        0 -1 62166 8.8066025637090206e-04</internalNodes>
      <leafValues>
        1.9296270608901978e-01 -3.7190166115760803e-01</leafValues></_>
    <_>
      <internalNodes>
        0 -1 18378 -3.6150813102722168e-02</internalNodes>
      <leafValues>
        7.8229951858520508e-01 -8.6580060422420502e-02</leafValues></_>
    <_>
      <internalNodes>
        0 -1 73186 1.9964788109064102e-02</internalNodes>
      <leafValues>
        -1.0786717385053635e-01 5.5751067399978638e-01</leafValues></_>
    <_>
      <internalNodes>
        0 -1 65022 -2.7688674628734589e-02</internalNodes>
      <leafValues>
        4.8424726724624634e-01 -1.9872868061065674e-01</leafValues></_>
    <_>
      <internalNodes>
        0 -1 48987 -5.1105767488479614e-03</internalNodes>
      <leafValues>
        4.3761134147644043e-01 -1.5611633658409119e-01</leafValues></_>
    <_>
      <internalNodes>
        0 -1 6756 6.5154448151588440e-02</internalNodes>
      <leafValues>
        -8.4410220384597778e-02 5.9336495399475098e-01</leafValues></_>
    <_>
      <internalNodes>
        0 -1 27305 -9.7856987267732620e-03</internalNodes>
      <leafValues>
        3.6845988035202026e-01 -2.6644980907440186e-01</leafValues></_>
    <_>
      <internalNodes>
        0 -1 49663 3.7060200702399015e-04</internalNodes>
      <leafValues>
        1.1265433579683304e-01 -5.6162095069885254e-01</leafValues></_>
    <_>
      <internalNodes>
        0 -1 52944 -1.0607393458485603e-02</internalNodes>
      <leafValues>
        4.9796754121780396e-01 -1.1143632233142853e-01</leafValues></_>
    <_>
      <internalNodes>
        0 -1 57624 -2.7831790503114462e-03</internalNodes>
      <leafValues>
        -5.8381867408752441e-01 1.0843218117952347e-01</leafValues></_>
    <_>
      <internalNodes>
        0 -1 49752 1.6838071169331670e-03</internalNodes>
      <leafValues>
        -4.3400412797927856e-01 1.4070625603199005e-01</leafValues></_>
    <_>
      <internalNodes>
        0 -1 49665 -3.0269552953541279e-03</internalNodes>
      <leafValues>
        -8.0538630485534668e-01 7.3016814887523651e-02</leafValues></_>
    <_>
      <internalNodes>
        0 -1 20361 1.5108817256987095e-02</internalNodes>
      <leafValues>
        -2.0702986419200897e-01 3.1812509894371033e-01</leafValues></_>
    <_>
      <internalNodes>
        0 -1 49270 2.7561567723751068e-02</internalNodes>
      <leafValues>
        -1.6419450938701630e-01 3.7628495693206787e-01</leafValues></_>
    <_>
      <internalNodes>
        0 -1 59562 -1.1374697089195251e-01</internalNodes>
      <leafValues>
        4.2064315080642700e-01 -1.5309377014636993e-01</leafValues></_>
    <_>
      <internalNodes>
        0 -1 58209 -2.4981120601296425e-02</internalNodes>
      <leafValues>
        -7.6508116722106934e-01 9.1373845934867859e-02</leafValues></_>
    <_>
      <internalNodes>
        0 -1 49950 -5.1994407549500465e-03</internalNodes>
      <leafValues>
        2.3801514506340027e-01 -2.2586059570312500e-01</leafValues></_>
    <_>
      <internalNodes>
        0 -1 53208 -6.5707629546523094e-03</internalNodes>
      <leafValues>
        4.9438107013702393e-01 -1.1261528730392456e-01</leafValues></_>
    <_>
      <internalNodes>
        0 -1 32406 -2.7103558182716370e-02</internalNodes>
      <leafValues>
        -8.8088577985763550e-01 6.8320348858833313e-02</leafValues></_>
    <_>
      <internalNodes>
        0 -1 58346 3.4548918483778834e-04</internalNodes>
      <leafValues>
        1.0240442305803299e-01 -4.5700880885124207e-01</leafValues></_>
    <_>
      <internalNodes>
        0 -1 52851 2.3530699312686920e-02</internalNodes>
      <leafValues>
        -4.7478955984115601e-01 9.8493099212646484e-02</leafValues></_>
    <_>
      <internalNodes>
        0 -1 27069 2.0046830177307129e-02</internalNodes>
      <leafValues>
        -1.1848548054695129e-01 4.6962988376617432e-01</leafValues></_>
    <_>
      <internalNodes>
        0 -1 59313 1.0223509743809700e-03</internalNodes>
      <leafValues>
        -1.4890633523464203e-01 3.1935942173004150e-01</leafValues></_>
    <_>
      <internalNodes>
        0 -1 36087 1.0829801857471466e-01</internalNodes>
      <leafValues>
        -1.7703101038932800e-01 3.5117137432098389e-01</leafValues></_></weakClassifiers></stage14>
</opencv_storage>
